{"learner":{"attributes":{"best_iteration":"0","best_ntree_limit":"1","best_score":"14.387449"},"feature_names":["pickup_longitude","pickup_latitude","dropoff_longitude","dropoff_latitude","passenger_count","hour","year","month","day","weekday","jfk_distance","lga_distance","ewr_distance","tsq_distance","met_distance","wtc_distance"],"feature_types":["float","float","float","float","int","int","int","int","int","int","float","float","float","float","float","float"],"gradient_booster":{"model":{"gbtree_model_param":{"num_trees":"1","size_leaf_vector":"0"},"tree_info":[0],"trees":[{"base_weights":[1.0812368E1,9.682452E0,3.0337986E1,8.839594E0,3.6939774E1,2.588315E1,4.6682632E1,8.276975E0,1.3107947E1,2.0825718E1,2.7066088E1,4.901246E1,2.979006E1,2.7235033E1,5.160029E1,1.2779536E1,8.051463E0,1.8741194E1,3.79494E1,2.4656267E1,4.793634E1,3.155715E1,1.4549793E1,6.647432E1,4.8300724E1,3.9861237E1,5.097898E1,9.982338E0,1.3989761E1,3.0215355E1,2.2403404E1,1.6745676E1,9.526105E0,9.006088E0,2.1917233E1,3.2905495E1,2.6361498E1,2.5537792E1,3.257989E1,1.49859495E1,8.873095E0,4.453669E1,2.1571075E1,8.737771E0,2.4343939E1,1.0260836E2,5.08464E1,4.2166664E1,3.539337E1,4.991658E1,2.2695616E1,4.351612E1,7.0674805E1,2.1439026E1,9.137786E1,1.130725E1,2.1257719E1,1.6552032E1,2.6578962E1,3.352553E1,8.031556E0,3.5071335E1,4.251251E1,1.55142E-1,1.9614182E-1,8.270792E-2,1.10978365E-1,1.3483997E-1,2.6610476E-1,1.0825149E0,9.744985E-1,3.3125675E-1,3.722026E-1,7.829884E-2,9.576102E-2,4.817114E-1,3.6268005E-1,3.9958534E-1,2.2760752E-1,2.3146829E-1,4.1076082E-1,1.3784462E-1,3.539462E-1,1.8203275E-1,2.3540716E-1,1.1002404E-1,2.4198022E-1,1.0915673E0,5.2111566E-1,2.2591056E-1,1.0448627E-1,6.930242E-1,9.5063E-1,6.4820683E-1,3.1010902E-1,2.863877E-1,2.012933E-1,4.9430045E-1,6.575898E-1,3.70801E-1,3.2662535E-1,4.016706E-1,4.4659472E-1,2.2756799E-1,2.8601176E-1,4.900608E-1,5.122524E-1,8.562082E-2,3.7722486E-1,1.9888696E-1,2.8478155E-1,4.0984577E-1,7.7042466E-1,7.4061275E-2,2.4720226E-1,1.3906416E-1,1.901066E-1,2.2616306E-1,2.7473095E-1,3.1721124E-1,4.2100352E-1,8.338885E-1,3.2822555E-1,1.3572907E-1,8.85126E-2,1.8644568E-1,2.7278253E-1],"categories":[],"categories_nodes":[],"categories_segments":[],"categories_sizes":[],"default_left":[true,true,true,true,true,true,false,false,true,true,true,true,true,true,true,true,false,true,true,true,false,true,true,false,true,false,true,true,true,true,true,true,true,true,true,true,true,false,true,false,false,false,false,true,false,true,false,true,false,true,true,true,false,true,true,true,true,true,true,true,true,true,false,false,false,false,false,false,false,false,false,false,false,false,false,false,false,false,false,false,false,false,false,false,false,false,false,false,false,false,false,false,false,false,false,false,false,false,false,false,false,false,false,false,false,false,false,false,false,false,false,false,false,false,false,false,false,false,false,false,false,false,false,false,false,false,false],"id":0,"left_children":[1,3,5,7,11,9,13,15,27,17,29,25,21,19,23,31,59,33,61,57,53,35,55,51,49,47,45,43,39,37,41,63,123,65,125,121,117,67,119,115,113,111,109,107,103,69,105,101,99,97,95,93,91,89,87,85,83,81,79,77,73,71,75,-1,-1,-1,-1,-1,-1,-1,-1,-1,-1,-1,-1,-1,-1,-1,-1,-1,-1,-1,-1,-1,-1,-1,-1,-1,-1,-1,-1,-1,-1,-1,-1,-1,-1,-1,-1,-1,-1,-1,-1,-1,-1,-1,-1,-1,-1,-1,-1,-1,-1,-1,-1,-1,-1,-1,-1,-1,-1,-1,-1,-1,-1,-1,-1],"loss_changes":[8.404808E8,8.273375E8,1.5173683E8,8.388685E7,9.323443E7,9.796608E6,4.268493E7,3.1338112E7,1.1212544E7,1.1080112E7,1.9487616E7,7.228096E6,1.8269568E7,4.808008E6,1.7480896E7,1.8994816E7,1.4904448E7,8.556528E6,4.40932E5,1.247832E6,1.1483554E7,4.25792E6,1.532948E6,6.234208E6,1.2062592E7,7.30536E5,2.25824E6,1.6000296E7,1.6173056E7,8.760512E6,9.855552E6,2.343056E6,2.208408E6,1.046175E5,3.660536E6,2.018144E6,5.20864E5,3.4388E6,4.30048E6,1.1539072E7,1.2020744E7,2.235692E6,5.991408E6,4.194684E6,4.81716E5,1.4078E4,2.27456E5,2.31856E5,1.1024E5,2.110784E6,2.63432E5,2.66377E6,1.823328E6,7.825125E4,2.633172E6,1.86477E5,1.59741E5,8.007175E5,3.220608E6,1.588374E6,9.147904E6,8.5164E4,4.58496E5,0E0,0E0,0E0,0E0,0E0,0E0,0E0,0E0,0E0,0E0,0E0,0E0,0E0,0E0,0E0,0E0,0E0,0E0,0E0,0E0,0E0,0E0,0E0,0E0,0E0,0E0,0E0,0E0,0E0,0E0,0E0,0E0,0E0,0E0,0E0,0E0,0E0,0E0,0E0,0E0,0E0,0E0,0E0,0E0,0E0,0E0,0E0,0E0,0E0,0E0,0E0,0E0,0E0,0E0,0E0,0E0,0E0,0E0,0E0,0E0,0E0,0E0,0E0,0E0],"parents":[2147483647,0,0,1,1,2,2,3,3,5,5,4,4,6,6,7,7,9,9,13,13,12,12,14,14,11,11,8,8,10,10,15,15,17,17,21,21,29,29,28,28,30,30,27,27,26,26,25,25,24,24,23,23,20,20,22,22,19,19,16,16,18,18,31,31,33,33,37,37,45,45,61,61,60,60,62,62,59,59,58,58,57,57,56,56,55,55,54,54,53,53,52,52,51,51,50,50,49,49,48,48,47,47,44,44,46,46,43,43,42,42,41,41,40,40,39,39,36,36,38,38,35,35,32,32,34,34],"right_children":[2,4,6,8,12,10,14,16,28,18,30,26,22,20,24,32,60,34,62,58,54,36,56,52,50,48,46,44,40,38,42,64,124,66,126,122,118,68,120,116,114,112,110,108,104,70,106,102,100,98,96,94,92,90,88,86,84,82,80,78,74,72,76,-1,-1,-1,-1,-1,-1,-1,-1,-1,-1,-1,-1,-1,-1,-1,-1,-1,-1,-1,-1,-1,-1,-1,-1,-1,-1,-1,-1,-1,-1,-1,-1,-1,-1,-1,-1,-1,-1,-1,-1,-1,-1,-1,-1,-1,-1,-1,-1,-1,-1,-1,-1,-1,-1,-1,-1,-1,-1,-1,-1,-1,-1,-1,-1],"split_conditions":[9.350596E0,-7.3885345E1,1.9645262E1,5.0912795E0,4.070895E1,8.164696E0,4.0678474E1,4.071757E1,4.0722195E1,-7.3885345E1,-7.396832E1,1.903368E1,-7.394281E1,2.8265844E1,-7.402665E1,4.504953E0,-7.401612E1,4.0702362E1,1.523291E1,-7.379364E1,-7.38635E1,-7.39684E1,5.497909E0,-7.401625E1,-7.378096E1,-7.393465E1,-7.402665E1,8.688347E0,4.078398E1,-7.390774E1,-7.39684E1,6.320945E0,4.0702362E1,4.0686886E1,4.0741665E1,-7.402665E1,1.9927702E1,4.0693577E1,1.4469748E1,7.3114376E0,6.5507584E0,2.4628597E1,-7.379364E1,2.2955496E1,1.1882689E1,3.211745E0,2.8346417E0,1.7483643E1,7.8162327E0,2.0875103E1,4.082025E1,1.4878883E1,2.106114E1,5E0,-7.378096E1,2.0218267E1,6.186268E0,-7.3789734E1,1.0282109E1,-7.402665E1,3.8884344E0,1.4055986E1,4.0678474E1,1.55142E-1,1.9614182E-1,8.270792E-2,1.10978365E-1,1.3483997E-1,2.6610476E-1,1.0825149E0,9.744985E-1,3.3125675E-1,3.722026E-1,7.829884E-2,9.576102E-2,4.817114E-1,3.6268005E-1,3.9958534E-1,2.2760752E-1,2.3146829E-1,4.1076082E-1,1.3784462E-1,3.539462E-1,1.8203275E-1,2.3540716E-1,1.1002404E-1,2.4198022E-1,1.0915673E0,5.2111566E-1,2.2591056E-1,1.0448627E-1,6.930242E-1,9.5063E-1,6.4820683E-1,3.1010902E-1,2.863877E-1,2.012933E-1,4.9430045E-1,6.575898E-1,3.70801E-1,3.2662535E-1,4.016706E-1,4.4659472E-1,2.2756799E-1,2.8601176E-1,4.900608E-1,5.122524E-1,8.562082E-2,3.7722486E-1,1.9888696E-1,2.8478155E-1,4.0984577E-1,7.7042466E-1,7.4061275E-2,2.4720226E-1,1.3906416E-1,1.901066E-1,2.2616306E-1,2.7473095E-1,3.1721124E-1,4.2100352E-1,8.338885E-1,3.2822555E-1,1.3572907E-1,8.85126E-2,1.8644568E-1,2.7278253E-1],"split_indices":[13,0,14,13,1,15,1,1,1,0,0,10,2,10,2,14,2,1,11,0,0,2,11,0,0,2,2,15,1,2,2,15,1,1,1,2,10,1,14,13,14,10,0,10,15,15,15,10,13,10,1,15,15,4,0,10,13,2,10,2,13,11,1,0,0,0,0,0,0,0,0,0,0,0,0,0,0,0,0,0,0,0,0,0,0,0,0,0,0,0,0,0,0,0,0,0,0,0,0,0,0,0,0,0,0,0,0,0,0,0,0,0,0,0,0,0,0,0,0,0,0,0,0,0,0,0,0],"split_type":[0,0,0,0,0,0,0,0,0,0,0,0,0,0,0,0,0,0,0,0,0,0,0,0,0,0,0,0,0,0,0,0,0,0,0,0,0,0,0,0,0,0,0,0,0,0,0,0,0,0,0,0,0,0,0,0,0,0,0,0,0,0,0,0,0,0,0,0,0,0,0,0,0,0,0,0,0,0,0,0,0,0,0,0,0,0,0,0,0,0,0,0,0,0,0,0,0,0,0,0,0,0,0,0,0,0,0,0,0,0,0,0,0,0,0,0,0,0,0,0,0,0,0,0,0,0,0],"sum_hessian":[3.8095784E7,3.6011836E7,2.083947E6,3.493167E7,1.080165E6,1.637609E6,4.46338E5,3.0863504E7,4.068168E6,3.10432E5,1.327177E6,4.01762E5,6.78403E5,9.0086E4,3.56252E5,1.472071E6,2.9391432E7,2.76745E5,3.3687E4,8.0109E4,9.977E3,6.07915E5,7.0488E4,6.4677E4,2.91575E5,7.1068E4,3.30694E5,8.95184E5,3.172984E6,7.92143E5,5.35034E5,6.63373E5,8.08698E5,6.8078E4,2.08667E5,4.82654E5,1.25261E5,2.65983E5,5.2616E5,2.655894E6,5.1709E5,1.9389E4,5.15645E5,8.23796E5,7.1388E4,8.45E2,3.29849E5,4.6873E4,2.4195E4,2.74266E5,1.7309E4,1.0005E4,5.4672E4,6.198E3,3.779E3,4.752E4,2.2968E4,1.5363E4,6.4746E4,2.2949E4,2.9368484E7,2.0663E4,1.3024E4,4.64126E5,1.99247E5,5.0375E4,1.7703E4,2.1737E4,2.44246E5,3.94E2,4.51E2,1.0853E4,9.81E3,2.5976704E7,3.391781E6,6.829E3,6.195E3,1.4363E4,8.586E3,5.2354E4,1.2392E4,1.3397E4,1.966E3,9.828E3,1.314E4,4.6424E4,1.096E3,2.6E3,1.179E3,5.609E3,5.89E2,5.1763E4,2.909E3,3.699E3,6.306E3,5.217E3,1.2092E4,2.66098E5,8.168E3,1.4949E4,9.246E3,2.6019E4,2.0854E4,5.2006E4,1.9382E4,5.6331E4,2.73518E5,8.18834E5,4.962E3,4.14651E5,1.00994E5,1.7481E4,1.908E3,4.7328E5,4.381E4,2.094184E6,5.6171E5,2.8674E4,9.6587E4,4.8263E5,4.353E4,7.9E2,4.81864E5,1.15581E5,6.93117E5,1.29573E5,7.9094E4],"tree_param":{"num_deleted":"0","num_feature":"16","num_nodes":"127","size_leaf_vector":"0"}}]},"name":"gbtree"},"learner_model_param":{"base_score":"5E-1","num_class":"0","num_feature":"16"},"objective":{"name":"reg:squarederror","reg_loss_param":{"scale_pos_weight":"1"}}},"version":[1,4,2]}